0,1,2,3,4,5,6,7,8,9,10,11,12
1.609947126703831516e-16,2.779162653709409652e-15,1.677398187743439056e-15,5.788886112379105873e-15,5.176421117681654358e-16,3.717983721247657517e-15,-2.437566858918368811e-15,4.088554488697765501e-15,-1.005142796183802628e-15,3.215289208694838876e-16,7.900706048758862724e-17,-6.463003570997953666e-15,2.832775418332264712e-15
1.823874292643008619e-14,1.612489488556230943e-14,-3.037290991342796899e-14,-8.811164238246532017e-15,-3.407905752076611418e-14,-1.241984505273467799e-14,-7.200955640190611044e-15,-1.417861479295301815e-14,-1.358214251661996274e-15,-8.538625348488162588e-16,1.826572761629095750e-16,8.796858578876043471e-14,-6.887759903772335752e-15
-7.423265196557517211e-15,-1.077156341102005910e-14,1.998592932333201855e-14,4.197979884202200167e-15,1.427178281899770769e-14,4.671238761073851875e-15,3.164903142482908973e-15,9.799712859066378059e-17,-1.275001595976867087e-15,6.157146551869893903e-15,9.053019971456566715e-16,-5.097947744588319240e-14,-1.599729395842336932e-14
1.178711219156903838e-14,1.677652857529398947e-14,-3.141481517068761971e-14,-2.696969315066470136e-14,-2.989417432878727820e-14,-9.938999581341385453e-15,-1.298777877935586432e-14,-2.538506700056053723e-14,8.616427252432819789e-17,-1.573570944308986124e-14,-3.006946259410134350e-15,8.264686200952376321e-14,-1.246404228252537339e-15
