0,1,2,3,4,5,6,7,8,9,10,11,12
3.005801093363519860e-01,-7.947840388333216044e-01,5.218544696458495835e-01,7.930936846375333804e-01,4.527370003075776861e-01,1.385562439234886423e+00,5.023769301272738019e-01,-1.008541000612698385e-01,-4.619494243613001677e-02,1.332796083365511697e-01,4.626168918198834967e-02,1.180033702772110837e+00,2.896216817332736837e-01
-5.778460964415195467e-02,-7.142974070874053005e-01,-6.871178813103662186e-01,7.255575481346234756e-01,-1.636540360140162020e+00,-4.800364437268451745e-01,-3.128355491282845402e-01,1.370123602200373214e-01,3.024832117270489507e-01,3.935458431260678291e-01,-4.268301412300817138e-02,-7.106115183460974816e-01,-7.800239098332509835e-01
-3.319263380110349937e-01,1.396581985327157716e-01,-1.376329009065866193e+00,-1.365565720863246568e-01,7.291656057018590653e-01,1.959022897154024945e-01,5.400311746350550113e-01,-9.993178717521253862e-01,-1.064724934622978403e-01,-1.365665967656188584e-01,-2.989404164426007898e-02,-4.409967539511333579e-01,1.434248928595338368e+00
5.485189089628045994e-02,1.415849337237199634e+00,1.746680124409261348e+00,-1.471564947097588893e+00,2.901124283149775773e-01,-1.358451686984315065e+00,-5.349276710905191967e-01,1.158820881690179272e+00,-1.289594525546457482e-01,-4.365569276961491774e-01,3.856267555581725792e-02,-1.342262415043100621e-01,-1.249178125833797504e+00
