0,1,2,3,4,5,6,7,8,9,10,11,12
7.524951354292723493e-02,-5.752881519545937072e-01,3.959573199440071245e-01,5.797165427945848437e-01,3.813822612204097462e-01,1.002093046322688252e+00,6.106926518688267080e-01,2.656002426509463527e-02,-1.111850192535750008e-02,6.620729472264076654e-02,2.035555566877508132e-02,8.746958240408176932e-01,7.059980207897106896e-02
-2.317300552877652950e-02,-4.712324414093072567e-01,-6.028974517299773295e-01,4.723482366944332655e-01,-1.023985234506259223e+00,-3.362439755181332313e-01,-2.997217809463061933e-01,1.094157801247854639e-01,4.602971833768557813e-02,4.019640017250433184e-01,-9.161313658645434121e-03,-4.786623689694167738e-01,-4.244819644282486482e-01
-9.033922502711495828e-02,1.515633065380792843e-01,-7.577707747076939393e-01,-1.484229884072943428e-01,2.341417632127616999e-01,-1.993074013200315381e-02,5.444983215241018248e-01,-8.096542926037942900e-01,-1.328281967086888948e-01,-2.450672860950424137e-01,-4.216638242244630935e-02,-3.800591482689814060e-01,8.815967970884166505e-01
7.000246902550809336e-02,8.782758343517942379e-01,9.555551523769747480e-01,-8.875691043072022612e-01,3.679374641829639692e-01,-6.479682456797256629e-01,-6.653375931359181150e-01,7.053010061717654988e-01,1.282174623903640509e-01,-2.026637862710281290e-01,3.009725618878444225e-02,-3.649705804823835664e-02,-5.869716771293985724e-01
